<?xml version="1.0"?>
<opencv_storage>
<stage7>
  <maxWeakCount>7</maxWeakCount>
  <stageThreshold>-1.5494172573089600e+00</stageThreshold>
  <weakClassifiers>
    <_>
      <internalNodes>
        0 -1 623 -33685507 -642264831 -763246441 -4206265 -36347651
        -70413656 -91259905 -1793</internalNodes>
      <leafValues>
        -7.9349219799041748e-01 8.8422968983650208e-02</leafValues></_>
    <_>
      <internalNodes>
        0 -1 3104 -235195393 -146818817 1565577727 -145002006
        -1549813057 -74540998 -1620317442 -68517240</internalNodes>
      <leafValues>
        -6.0390323400497437e-01 3.9009791612625122e-01</leafValues></_>
    <_>
      <internalNodes>
        0 -1 1614 101624968 -136348853 424915831 1594869535 -1412445701
        -272432133 170563806 -1892742650</internalNodes>
      <leafValues>
        -6.0886090993881226e-01 4.1569182276725769e-01</leafValues></_>
    <_>
      <internalNodes>
        0 -1 694 -1275378409 1823152195 408109243 -1082424801 591243519
        -1080406735 -1353904197 5440003</internalNodes>
      <leafValues>
        -6.9992440938949585e-01 3.7243342399597168e-01</leafValues></_>
    <_>
      <internalNodes>
        0 -1 3130 -225531934 1577226355 1275147408 -1174138358
        -225725530 546863809 65606332 -590348385</internalNodes>
      <leafValues>
        -5.7742142677307129e-01 5.0433540344238281e-01</leafValues></_>
    <_>
      <internalNodes>
        0 -1 7968 -516168186 -1053679594 1108623402 1936831769
        -1610316894 -129300319 -712769809 1899997611</internalNodes>
      <leafValues>
        -6.5881288051605225e-01 4.2529991269111633e-01</leafValues></_>
    <_>
      <internalNodes>
        0 -1 1178 -258825816 -1080946592 -745782951 -671624959
        -1190458898 -601215864 -342488837 -538445101</internalNodes>
      <leafValues>
        -5.6467545032501221e-01 4.9246835708618164e-01</leafValues></_></weakClassifiers></stage7>
</opencv_storage>
