<?xml version="1.0"?>
<opencv_storage>
<stage6>
  <maxWeakCount>6</maxWeakCount>
  <stageThreshold>-1.9718326330184937e+00</stageThreshold>
  <weakClassifiers>
    <_>
      <internalNodes>
        0 -1 7335 -196611 -547389954 1548732565 -4353955 -340935734
        -72372036 -554980465 -4195845</internalNodes>
      <leafValues>
        -8.0465853214263916e-01 3.2733224332332611e-02</leafValues></_>
    <_>
      <internalNodes>
        0 -1 5591 -79167497 -1090006137 1427234141 -305792171 -7602241
        -271593255 628226941 -1930043939</internalNodes>
      <leafValues>
        -6.7172878980636597e-01 3.4255090355873108e-01</leafValues></_>
    <_>
      <internalNodes>
        0 -1 564 -562036749 -105979150 -648883403 -4099454 2079322615
        -280853004 1922036131 -680004750</internalNodes>
      <leafValues>
        -5.6668108701705933e-01 4.8658213019371033e-01</leafValues></_>
    <_>
      <internalNodes>
        0 -1 1967 -58927664 -140575269 -1741106211 -678421516
        -1162282049 -69307476 -1433875461 -1074247172</internalNodes>
      <leafValues>
        -6.9477367401123047e-01 4.0315687656402588e-01</leafValues></_>
    <_>
      <internalNodes>
        0 -1 6700 -547644408 -1184919420 -557147927 -1122608691
        -1571941701 -1701673843 1019988027 -51826505</internalNodes>
      <leafValues>
        -5.9795957803726196e-01 4.6587502956390381e-01</leafValues></_>
    <_>
      <internalNodes>
        0 -1 3676 -797576458 -790707717 1912719310 -241462798 -506756420
        -176060273 1422113486 1912464044</internalNodes>
      <leafValues>
        -7.8722470998764038e-01 3.5023012757301331e-01</leafValues></_></weakClassifiers></stage6>
</opencv_storage>
