<?xml version="1.0"?>
<opencv_storage>
<stage3>
  <maxWeakCount>10</maxWeakCount>
  <stageThreshold>-2.4758448600769043e+00</stageThreshold>
  <weakClassifiers>
    <_>
      <internalNodes>
        0 -1 32484 9.6960395574569702e-02</internalNodes>
      <leafValues>
        -7.9780924320220947e-01 8.0258899927139282e-01</leafValues></_>
    <_>
      <internalNodes>
        0 -1 49035 2.9975689947605133e-02</internalNodes>
      <leafValues>
        -6.0430473089218140e-01 3.0334702134132385e-01</leafValues></_>
    <_>
      <internalNodes>
        0 -1 45534 2.9786612838506699e-02</internalNodes>
      <leafValues>
        -4.4039854407310486e-01 4.6317586302757263e-01</leafValues></_>
    <_>
      <internalNodes>
        0 -1 238896 2.0385975949466228e-03</internalNodes>
      <leafValues>
        -2.5941520929336548e-01 7.2395622730255127e-01</leafValues></_>
    <_>
      <internalNodes>
        0 -1 243899 2.0077709108591080e-02</internalNodes>
      <leafValues>
        -3.3049359917640686e-01 5.3800034523010254e-01</leafValues></_>
    <_>
      <internalNodes>
        0 -1 15097 -1.7306506633758545e-03</internalNodes>
      <leafValues>
        3.6408492922782898e-01 -4.5205178856849670e-01</leafValues></_>
    <_>
      <internalNodes>
        0 -1 111190 -4.2683603242039680e-03</internalNodes>
      <leafValues>
        6.7191284894943237e-01 -2.0561207830905914e-01</leafValues></_>
    <_>
      <internalNodes>
        0 -1 14794 -7.9798839986324310e-02</internalNodes>
      <leafValues>
        5.7912969589233398e-01 -2.5134161114692688e-01</leafValues></_>
    <_>
      <internalNodes>
        0 -1 152233 -5.4413322359323502e-03</internalNodes>
      <leafValues>
        6.2219589948654175e-01 -2.8776532411575317e-01</leafValues></_>
    <_>
      <internalNodes>
        0 -1 191648 -7.6328555587679148e-04</internalNodes>
      <leafValues>
        -7.6435023546218872e-01 2.4338603019714355e-01</leafValues></_></weakClassifiers></stage3>
</opencv_storage>
