<?xml version="1.0"?>
<opencv_storage>
<stage15>
  <maxWeakCount>10</maxWeakCount>
  <stageThreshold>-2.9496791362762451e+00</stageThreshold>
  <weakClassifiers>
    <_>
      <internalNodes>
        0 -1 15225 -6.0859415680170059e-02</internalNodes>
      <leafValues>
        1. -7.5093019008636475e-01</leafValues></_>
    <_>
      <internalNodes>
        0 -1 151315 6.6978130489587784e-03</internalNodes>
      <leafValues>
        -4.5701140165328979e-01 1.</leafValues></_>
    <_>
      <internalNodes>
        0 -1 64451 -7.2798109613358974e-04</internalNodes>
      <leafValues>
        9.5184487104415894e-01 -2.5343269109725952e-01</leafValues></_>
    <_>
      <internalNodes>
        0 -1 211679 -5.9582944959402084e-03</internalNodes>
      <leafValues>
        9.4713389873504639e-01 -2.0185972750186920e-01</leafValues></_>
    <_>
      <internalNodes>
        0 -1 131561 -5.1589892245829105e-04</internalNodes>
      <leafValues>
        -3.4021404385566711e-01 6.7591935396194458e-01</leafValues></_>
    <_>
      <internalNodes>
        0 -1 258126 8.9210271835327148e-04</internalNodes>
      <leafValues>
        -2.5197112560272217e-01 9.1527861356735229e-01</leafValues></_>
    <_>
      <internalNodes>
        0 -1 164218 -2.2806194610893726e-03</internalNodes>
      <leafValues>
        -7.1780222654342651e-01 4.0450024604797363e-01</leafValues></_>
    <_>
      <internalNodes>
        0 -1 94673 -3.0595695716328919e-04</internalNodes>
      <leafValues>
        -3.7412843108177185e-01 8.0784213542938232e-01</leafValues></_>
    <_>
      <internalNodes>
        0 -1 13923 -5.2213622257113457e-03</internalNodes>
      <leafValues>
        8.1214338541030884e-01 -3.6435350775718689e-01</leafValues></_>
    <_>
      <internalNodes>
        0 -1 16399 -3.0907697975635529e-02</internalNodes>
      <leafValues>
        7.1996301412582397e-01 -4.4325330853462219e-01</leafValues></_></weakClassifiers></stage15>
</opencv_storage>
