<?xml version="1.0"?>
<opencv_storage>
<stage5>
  <maxWeakCount>10</maxWeakCount>
  <stageThreshold>-1.9357557296752930e+00</stageThreshold>
  <weakClassifiers>
    <_>
      <internalNodes>
        0 -1 15985 9.2651307582855225e-02</internalNodes>
      <leafValues>
        -7.7956002950668335e-01 6.3207548856735229e-01</leafValues></_>
    <_>
      <internalNodes>
        0 -1 16292 -1.1337013915181160e-02</internalNodes>
      <leafValues>
        2.6637038588523865e-01 -5.5183809995651245e-01</leafValues></_>
    <_>
      <internalNodes>
        0 -1 179765 -2.8828417998738587e-04</internalNodes>
      <leafValues>
        -7.1480864286422729e-01 2.2991313040256500e-01</leafValues></_>
    <_>
      <internalNodes>
        0 -1 77508 7.7632330358028412e-03</internalNodes>
      <leafValues>
        -3.2263612747192383e-01 5.0422191619873047e-01</leafValues></_>
    <_>
      <internalNodes>
        0 -1 244724 -1.1646013706922531e-02</internalNodes>
      <leafValues>
        6.4976429939270020e-01 -1.9631962478160858e-01</leafValues></_>
    <_>
      <internalNodes>
        0 -1 13911 -6.0300682671368122e-03</internalNodes>
      <leafValues>
        5.1160985231399536e-01 -2.6704251766204834e-01</leafValues></_>
    <_>
      <internalNodes>
        0 -1 167356 -5.2612228319048882e-04</internalNodes>
      <leafValues>
        -8.1571948528289795e-01 1.8160423636436462e-01</leafValues></_>
    <_>
      <internalNodes>
        0 -1 124432 -7.8313229605555534e-03</internalNodes>
      <leafValues>
        4.3066060543060303e-01 -3.6011606454849243e-01</leafValues></_>
    <_>
      <internalNodes>
        0 -1 24479 -1.8431959673762321e-02</internalNodes>
      <leafValues>
        7.1143406629562378e-01 -2.0989222824573517e-01</leafValues></_>
    <_>
      <internalNodes>
        0 -1 23425 -1.0623218491673470e-02</internalNodes>
      <leafValues>
        6.1090278625488281e-01 -3.1209126114845276e-01</leafValues></_></weakClassifiers></stage5>
</opencv_storage>
