<?xml version="1.0"?>
<opencv_storage>
<stage6>
  <maxWeakCount>46</maxWeakCount>
  <stageThreshold>-2.0931980609893799e+00</stageThreshold>
  <weakClassifiers>
    <_>
      <internalNodes>
        0 -1 277 1.0330149671062827e-03</internalNodes>
      <leafValues>
        -1.4489310979843140e-01 -6.9215971231460571e-01</leafValues></_>
    <_>
      <internalNodes>
        0 -1 276 1.5713077038526535e-02</internalNodes>
      <leafValues>
        7.2027062997221947e-03 -5.5478346347808838e-01</leafValues></_>
    <_>
      <internalNodes>
        0 -1 303 3.0669661238789558e-02</internalNodes>
      <leafValues>
        -2.4823172390460968e-01 2.2895283997058868e-01</leafValues></_>
    <_>
      <internalNodes>
        0 -1 20 3.6287102848291397e-02</internalNodes>
      <leafValues>
        -1.9199638068675995e-01 2.6263213157653809e-01</leafValues></_>
    <_>
      <internalNodes>
        0 -1 175 5.5033765733242035e-02</internalNodes>
      <leafValues>
        -3.6221671104431152e-01 1.3651587069034576e-01</leafValues></_>
    <_>
      <internalNodes>
        0 -1 73 1.8814668059349060e-02</internalNodes>
      <leafValues>
        -3.9704963564872742e-01 1.4068426191806793e-01</leafValues></_>
    <_>
      <internalNodes>
        0 -1 24 1.9341070204973221e-02</internalNodes>
      <leafValues>
        -2.5154227018356323e-01 1.7823469638824463e-01</leafValues></_>
    <_>
      <internalNodes>
        0 -1 39 3.8029700517654419e-02</internalNodes>
      <leafValues>
        -2.9637929797172546e-01 1.5819701552391052e-01</leafValues></_>
    <_>
      <internalNodes>
        0 -1 201 1.6437588259577751e-02</internalNodes>
      <leafValues>
        -5.9707671403884888e-01 7.7534556388854980e-02</leafValues></_>
    <_>
      <internalNodes>
        0 -1 158 1.7520016059279442e-02</internalNodes>
      <leafValues>
        -3.7493434548377991e-01 1.3549570739269257e-01</leafValues></_>
    <_>
      <internalNodes>
        0 -1 84 2.9200544580817223e-02</internalNodes>
      <leafValues>
        -5.6668090820312500e-01 6.9459632039070129e-02</leafValues></_>
    <_>
      <internalNodes>
        0 -1 25 1.2637684121727943e-02</internalNodes>
      <leafValues>
        -3.3477476239204407e-01 1.2997534871101379e-01</leafValues></_>
    <_>
      <internalNodes>
        0 -1 59 1.4183549210429192e-02</internalNodes>
      <leafValues>
        -3.6556437611579895e-01 1.0651924461126328e-01</leafValues></_>
    <_>
      <internalNodes>
        0 -1 271 5.5465232580900192e-03</internalNodes>
      <leafValues>
        2.4162338674068451e-01 -1.8905296921730042e-01</leafValues></_>
    <_>
      <internalNodes>
        0 -1 275 4.6981245279312134e-02</internalNodes>
      <leafValues>
        4.3271053582429886e-02 -9.4347202777862549e-01</leafValues></_>
    <_>
      <internalNodes>
        0 -1 244 1.3936497271060944e-02</internalNodes>
      <leafValues>
        -3.5776531696319580e-01 1.0716969519853592e-01</leafValues></_>
    <_>
      <internalNodes>
        0 -1 262 3.8059908896684647e-02</internalNodes>
      <leafValues>
        4.6553831547498703e-02 -6.9490683078765869e-01</leafValues></_>
    <_>
      <internalNodes>
        0 -1 305 1.2560709379613400e-02</internalNodes>
      <leafValues>
        -3.7381792068481445e-01 9.1565027832984924e-02</leafValues></_>
    <_>
      <internalNodes>
        0 -1 269 4.1793130338191986e-02</internalNodes>
      <leafValues>
        6.5835408866405487e-02 -5.4472643136978149e-01</leafValues></_>
    <_>
      <internalNodes>
        0 -1 249 1.3985406607389450e-02</internalNodes>
      <leafValues>
        -4.4101494550704956e-01 7.1189403533935547e-02</leafValues></_>
    <_>
      <internalNodes>
        0 -1 166 7.5784638524055481e-02</internalNodes>
      <leafValues>
        -1.9203938543796539e-01 2.0661236345767975e-01</leafValues></_>
    <_>
      <internalNodes>
        0 -1 52 6.5884692594408989e-03</internalNodes>
      <leafValues>
        -4.2869153618812561e-01 9.5550648868083954e-02</leafValues></_>
    <_>
      <internalNodes>
        0 -1 54 5.3729410283267498e-03</internalNodes>
      <leafValues>
        -4.8462599515914917e-01 7.2324350476264954e-02</leafValues></_>
    <_>
      <internalNodes>
        0 -1 61 3.7669785320758820e-02</internalNodes>
      <leafValues>
        4.7456711530685425e-02 -6.9397181272506714e-01</leafValues></_>
    <_>
      <internalNodes>
        0 -1 122 3.8210190832614899e-02</internalNodes>
      <leafValues>
        5.5492680519819260e-02 -5.3914773464202881e-01</leafValues></_>
    <_>
      <internalNodes>
        0 -1 302 4.3333552777767181e-02</internalNodes>
      <leafValues>
        -1.3329032063484192e-01 2.6249328255653381e-01</leafValues></_>
    <_>
      <internalNodes>
        0 -1 42 2.6117436587810516e-02</internalNodes>
      <leafValues>
        9.0254925191402435e-02 -3.7396973371505737e-01</leafValues></_>
    <_>
      <internalNodes>
        0 -1 63 1.2440528720617294e-02</internalNodes>
      <leafValues>
        9.9688299000263214e-02 -3.1756088137626648e-01</leafValues></_>
    <_>
      <internalNodes>
        0 -1 62 9.1929771006107330e-03</internalNodes>
      <leafValues>
        -3.3460012078285217e-01 1.0265713930130005e-01</leafValues></_>
    <_>
      <internalNodes>
        0 -1 252 5.5765779688954353e-03</internalNodes>
      <leafValues>
        -4.5219704508781433e-01 7.7090889215469360e-02</leafValues></_>
    <_>
      <internalNodes>
        0 -1 266 5.7359181344509125e-02</internalNodes>
      <leafValues>
        4.2179539799690247e-02 -7.3111641407012939e-01</leafValues></_>
    <_>
      <internalNodes>
        0 -1 265 4.5104630291461945e-02</internalNodes>
      <leafValues>
        -2.4857573211193085e-01 1.3338963687419891e-01</leafValues></_>
    <_>
      <internalNodes>
        0 -1 281 1.3575013726949692e-02</internalNodes>
      <leafValues>
        -3.4020236134529114e-01 9.5002330839633942e-02</leafValues></_>
    <_>
      <internalNodes>
        0 -1 250 1.6565566882491112e-02</internalNodes>
      <leafValues>
        -2.6799666881561279e-01 1.2552991509437561e-01</leafValues></_>
    <_>
      <internalNodes>
        0 -1 178 2.3366052657365799e-02</internalNodes>
      <leafValues>
        7.5069852173328400e-02 -4.7296640276908875e-01</leafValues></_>
    <_>
      <internalNodes>
        0 -1 145 7.5087114237248898e-03</internalNodes>
      <leafValues>
        -5.2534836530685425e-01 6.1570007354021072e-02</leafValues></_>
    <_>
      <internalNodes>
        0 -1 40 4.3347988277673721e-02</internalNodes>
      <leafValues>
        -2.1670748293399811e-01 1.6456878185272217e-01</leafValues></_>
    <_>
      <internalNodes>
        0 -1 163 3.7141829729080200e-02</internalNodes>
      <leafValues>
        5.1887482404708862e-02 -5.8493077754974365e-01</leafValues></_>
    <_>
      <internalNodes>
        0 -1 19 4.7013841569423676e-02</internalNodes>
      <leafValues>
        -1.0616200417280197e-01 3.9540168642997742e-01</leafValues></_>
    <_>
      <internalNodes>
        0 -1 319 1.4083083719015121e-02</internalNodes>
      <leafValues>
        -7.3576837778091431e-01 4.2292132973670959e-02</leafValues></_>
    <_>
      <internalNodes>
        0 -1 314 3.5039231181144714e-02</internalNodes>
      <leafValues>
        -6.5752513706684113e-02 5.7079935073852539e-01</leafValues></_>
    <_>
      <internalNodes>
        0 -1 62 5.6665450334548950e-02</internalNodes>
      <leafValues>
        3.8122892379760742e-02 -9.4619482755661011e-01</leafValues></_>
    <_>
      <internalNodes>
        0 -1 95 3.4532412886619568e-02</internalNodes>
      <leafValues>
        5.7785622775554657e-02 -4.9172532558441162e-01</leafValues></_>
    <_>
      <internalNodes>
        0 -1 268 3.7873193621635437e-02</internalNodes>
      <leafValues>
        4.5116763561964035e-02 -5.9664970636367798e-01</leafValues></_>
    <_>
      <internalNodes>
        0 -1 319 1.2090823799371719e-01</internalNodes>
      <leafValues>
        4.2592599987983704e-02 -5.9118771553039551e-01</leafValues></_>
    <_>
      <internalNodes>
        0 -1 301 1.2649790942668915e-01</internalNodes>
      <leafValues>
        2.8334565460681915e-02 -8.4709447622299194e-01</leafValues></_></weakClassifiers></stage6>
</opencv_storage>
