<?xml version="1.0"?>
<opencv_storage>
<stage1>
  <maxWeakCount>21</maxWeakCount>
  <stageThreshold>-1.7351834774017334e+00</stageThreshold>
  <weakClassifiers>
    <_>
      <internalNodes>
        0 -1 168225 6.8348869681358337e-03</internalNodes>
      <leafValues>
        -5.3152400255203247e-01 4.5123967528343201e-01</leafValues></_>
    <_>
      <internalNodes>
        0 -1 203679 1.7581759020686150e-03</internalNodes>
      <leafValues>
        -2.4933072924613953e-01 6.6255301237106323e-01</leafValues></_>
    <_>
      <internalNodes>
        0 -1 124275 4.5658200979232788e-03</internalNodes>
      <leafValues>
        -1.6920861601829529e-01 5.8953785896301270e-01</leafValues></_>
    <_>
      <internalNodes>
        0 -1 125814 2.9049431905150414e-03</internalNodes>
      <leafValues>
        -8.2612380385398865e-02 6.5189552307128906e-01</leafValues></_>
    <_>
      <internalNodes>
        0 -1 5438 1.0625602677464485e-02</internalNodes>
      <leafValues>
        -1.3243886828422546e-01 5.2333325147628784e-01</leafValues></_>
    <_>
      <internalNodes>
        0 -1 53665 -1.2866429984569550e-01</internalNodes>
      <leafValues>
        -5.6871885061264038e-01 1.3747915625572205e-01</leafValues></_>
    <_>
      <internalNodes>
        0 -1 238675 -1.0681925341486931e-03</internalNodes>
      <leafValues>
        5.0528252124786377e-01 -1.3547536730766296e-01</leafValues></_>
    <_>
      <internalNodes>
        0 -1 45594 -1.4438588405027986e-03</internalNodes>
      <leafValues>
        5.8650028705596924e-01 -1.2936742603778839e-01</leafValues></_>
    <_>
      <internalNodes>
        0 -1 63347 -1.0185289429500699e-03</internalNodes>
      <leafValues>
        4.8341983556747437e-01 -1.4499592781066895e-01</leafValues></_>
    <_>
      <internalNodes>
        0 -1 201598 -1.1053995694965124e-03</internalNodes>
      <leafValues>
        4.5617875456809998e-01 -1.5110602974891663e-01</leafValues></_>
    <_>
      <internalNodes>
        0 -1 173177 -2.9746075160801411e-03</internalNodes>
      <leafValues>
        6.3589036464691162e-01 -1.0433466732501984e-01</leafValues></_>
    <_>
      <internalNodes>
        0 -1 45594 6.8904331419616938e-04</internalNodes>
      <leafValues>
        -1.6203936934471130e-01 4.2787000536918640e-01</leafValues></_>
    <_>
      <internalNodes>
        0 -1 168267 1.6520796343684196e-03</internalNodes>
      <leafValues>
        -2.3204430937767029e-01 2.9737406969070435e-01</leafValues></_>
    <_>
      <internalNodes>
        0 -1 173973 2.0907524973154068e-02</internalNodes>
      <leafValues>
        -1.7478117346763611e-01 3.3811575174331665e-01</leafValues></_>
    <_>
      <internalNodes>
        0 -1 150762 3.9118882268667221e-02</internalNodes>
      <leafValues>
        5.1793839782476425e-02 -9.1674256324768066e-01</leafValues></_>
    <_>
      <internalNodes>
        0 -1 111669 -2.3412157315760851e-03</internalNodes>
      <leafValues>
        4.6979331970214844e-01 -1.3572417199611664e-01</leafValues></_>
    <_>
      <internalNodes>
        0 -1 111164 -2.1399264223873615e-03</internalNodes>
      <leafValues>
        4.9413675069808960e-01 -1.1143632978200912e-01</leafValues></_>
    <_>
      <internalNodes>
        0 -1 95643 1.1901714606210589e-03</internalNodes>
      <leafValues>
        -1.3332128524780273e-01 4.6085059642791748e-01</leafValues></_>
    <_>
      <internalNodes>
        0 -1 59923 9.7640112042427063e-02</internalNodes>
      <leafValues>
        8.9560016989707947e-02 -7.3644280433654785e-01</leafValues></_>
    <_>
      <internalNodes>
        0 -1 155413 -4.7599095851182938e-03</internalNodes>
      <leafValues>
        4.9782559275627136e-01 -1.3597579300403595e-01</leafValues></_>
    <_>
      <internalNodes>
        0 -1 29117 3.6884336732327938e-03</internalNodes>
      <leafValues>
        -1.5059678256511688e-01 3.7228164076805115e-01</leafValues></_></weakClassifiers></stage1>
</opencv_storage>
