<?xml version="1.0"?>
<opencv_storage>
<stage2>
  <maxWeakCount>31</maxWeakCount>
  <stageThreshold>-1.5798373222351074e+00</stageThreshold>
  <weakClassifiers>
    <_>
      <internalNodes>
        0 -1 203679 2.4992981925606728e-03</internalNodes>
      <leafValues>
        -4.7319346666336060e-01 5.1173710823059082e-01</leafValues></_>
    <_>
      <internalNodes>
        0 -1 168175 7.2129601612687111e-03</internalNodes>
      <leafValues>
        -1.9483411312103271e-01 6.7364525794982910e-01</leafValues></_>
    <_>
      <internalNodes>
        0 -1 154996 -2.2161370143294334e-03</internalNodes>
      <leafValues>
        5.1132249832153320e-01 -1.3097211718559265e-01</leafValues></_>
    <_>
      <internalNodes>
        0 -1 178517 -3.7524173967540264e-03</internalNodes>
      <leafValues>
        4.2618530988693237e-01 -1.5622727572917938e-01</leafValues></_>
    <_>
      <internalNodes>
        0 -1 230343 -1.4254822162911296e-03</internalNodes>
      <leafValues>
        5.3604549169540405e-01 -9.1798961162567139e-02</leafValues></_>
    <_>
      <internalNodes>
        0 -1 4833 -2.3111444711685181e-01</internalNodes>
      <leafValues>
        -6.8389171361923218e-01 9.4476513564586639e-02</leafValues></_>
    <_>
      <internalNodes>
        0 -1 237489 -1.3721901923418045e-03</internalNodes>
      <leafValues>
        3.9846512675285339e-01 -1.4071707427501678e-01</leafValues></_>
    <_>
      <internalNodes>
        0 -1 231343 2.8914758004248142e-03</internalNodes>
      <leafValues>
        -9.4685137271881104e-02 5.1681441068649292e-01</leafValues></_>
    <_>
      <internalNodes>
        0 -1 155345 7.5432320591062307e-04</internalNodes>
      <leafValues>
        -2.2015233337879181e-01 2.3324388265609741e-01</leafValues></_>
    <_>
      <internalNodes>
        0 -1 174449 -3.9558960124850273e-03</internalNodes>
      <leafValues>
        3.9950972795486450e-01 -1.3454575836658478e-01</leafValues></_>
    <_>
      <internalNodes>
        0 -1 180273 -3.3434729557484388e-03</internalNodes>
      <leafValues>
        3.0439779162406921e-01 -1.8127849698066711e-01</leafValues></_>
    <_>
      <internalNodes>
        0 -1 80165 -1.1374233290553093e-03</internalNodes>
      <leafValues>
        4.1980326175689697e-01 -9.7475171089172363e-02</leafValues></_>
    <_>
      <internalNodes>
        0 -1 80165 1.1412578169256449e-03</internalNodes>
      <leafValues>
        -1.2389697879552841e-01 4.7293901443481445e-01</leafValues></_>
    <_>
      <internalNodes>
        0 -1 190240 -1.5711486339569092e-02</internalNodes>
      <leafValues>
        -6.8055224418640137e-01 7.8951470553874969e-02</leafValues></_>
    <_>
      <internalNodes>
        0 -1 191313 1.0557843372225761e-02</internalNodes>
      <leafValues>
        8.8525332510471344e-02 -6.0832279920578003e-01</leafValues></_>
    <_>
      <internalNodes>
        0 -1 106 5.3352424874901772e-03</internalNodes>
      <leafValues>
        -2.1142813563346863e-01 2.7309846878051758e-01</leafValues></_>
    <_>
      <internalNodes>
        0 -1 229937 6.6646572668105364e-04</internalNodes>
      <leafValues>
        -1.4972135424613953e-01 3.5617890954017639e-01</leafValues></_>
    <_>
      <internalNodes>
        0 -1 192587 3.8087274879217148e-03</internalNodes>
      <leafValues>
        -1.1499749124050140e-01 4.5160371065139771e-01</leafValues></_>
    <_>
      <internalNodes>
        0 -1 170737 -9.6484407782554626e-02</internalNodes>
      <leafValues>
        -5.4251027107238770e-01 9.0368732810020447e-02</leafValues></_>
    <_>
      <internalNodes>
        0 -1 193024 1.6632939223200083e-03</internalNodes>
      <leafValues>
        -1.6654542088508606e-01 3.1580337882041931e-01</leafValues></_>
    <_>
      <internalNodes>
        0 -1 29785 -1.2006026227027178e-03</internalNodes>
      <leafValues>
        4.0677833557128906e-01 -1.1176708340644836e-01</leafValues></_>
    <_>
      <internalNodes>
        0 -1 259291 -5.7253027334809303e-03</internalNodes>
      <leafValues>
        3.1127762794494629e-01 -1.5112356841564178e-01</leafValues></_>
    <_>
      <internalNodes>
        0 -1 193011 -1.2997458688914776e-03</internalNodes>
      <leafValues>
        2.9210865497589111e-01 -1.7115695774555206e-01</leafValues></_>
    <_>
      <internalNodes>
        0 -1 177269 1.2315958738327026e-02</internalNodes>
      <leafValues>
        7.6953411102294922e-02 -6.1954790353775024e-01</leafValues></_>
    <_>
      <internalNodes>
        0 -1 90283 -7.8510649502277374e-02</internalNodes>
      <leafValues>
        -6.2388354539871216e-01 6.6423967480659485e-02</leafValues></_>
    <_>
      <internalNodes>
        0 -1 168475 4.5189517550170422e-03</internalNodes>
      <leafValues>
        -8.0740496516227722e-02 6.2879145145416260e-01</leafValues></_>
    <_>
      <internalNodes>
        0 -1 138827 -1.1856652796268463e-02</internalNodes>
      <leafValues>
        -4.9584630131721497e-01 9.7216777503490448e-02</leafValues></_>
    <_>
      <internalNodes>
        0 -1 221559 -6.2821386381983757e-04</internalNodes>
      <leafValues>
        3.2864397764205933e-01 -1.5423461794853210e-01</leafValues></_>
    <_>
      <internalNodes>
        0 -1 12500 -5.4715820588171482e-03</internalNodes>
      <leafValues>
        5.2779120206832886e-01 -9.0585872530937195e-02</leafValues></_>
    <_>
      <internalNodes>
        0 -1 126869 1.3560066930949688e-02</internalNodes>
      <leafValues>
        1.1987465620040894e-01 -3.8888496160507202e-01</leafValues></_>
    <_>
      <internalNodes>
        0 -1 152587 9.2699553351849318e-04</internalNodes>
      <leafValues>
        -1.3748086988925934e-01 3.2853412628173828e-01</leafValues></_></weakClassifiers></stage2>
</opencv_storage>
