<?xml version="1.0"?>
<opencv_storage>
<stage14>
  <maxWeakCount>54</maxWeakCount>
  <stageThreshold>-1.3697975873947144e+00</stageThreshold>
  <weakClassifiers>
    <_>
      <internalNodes>
        0 -1 168475 -8.5100941359996796e-03</internalNodes>
      <leafValues>
        4.8717948794364929e-01 -3.7834036350250244e-01</leafValues></_>
    <_>
      <internalNodes>
        0 -1 154999 3.1158016063272953e-03</internalNodes>
      <leafValues>
        -1.2626130878925323e-01 4.1549021005630493e-01</leafValues></_>
    <_>
      <internalNodes>
        0 -1 180596 6.8523869849741459e-03</internalNodes>
      <leafValues>
        1.0508301109075546e-01 -4.6976321935653687e-01</leafValues></_>
    <_>
      <internalNodes>
        0 -1 192789 7.4810767546296120e-04</internalNodes>
      <leafValues>
        -1.1907060444355011e-01 2.5521853566169739e-01</leafValues></_>
    <_>
      <internalNodes>
        0 -1 191272 -7.8663583844900131e-03</internalNodes>
      <leafValues>
        -3.9441728591918945e-01 1.9081810489296913e-02</leafValues></_>
    <_>
      <internalNodes>
        0 -1 177959 -7.7091325074434280e-03</internalNodes>
      <leafValues>
        3.1677466630935669e-01 -8.3589233458042145e-02</leafValues></_>
    <_>
      <internalNodes>
        0 -1 166403 -3.9072092622518539e-03</internalNodes>
      <leafValues>
        -5.4568779468536377e-01 8.3953000605106354e-02</leafValues></_>
    <_>
      <internalNodes>
        0 -1 23642 -7.4120289646089077e-03</internalNodes>
      <leafValues>
        7.6936954259872437e-01 -6.2722869217395782e-02</leafValues></_>
    <_>
      <internalNodes>
        0 -1 95643 1.1281459592282772e-03</internalNodes>
      <leafValues>
        -1.0049790889024734e-01 3.2006087899208069e-01</leafValues></_>
    <_>
      <internalNodes>
        0 -1 238968 -4.7345017082989216e-03</internalNodes>
      <leafValues>
        5.7515847682952881e-01 -3.9624858647584915e-02</leafValues></_>
    <_>
      <internalNodes>
        0 -1 120000 1.8678206950426102e-02</internalNodes>
      <leafValues>
        -1.5890510380268097e-01 1.8863889575004578e-01</leafValues></_>
    <_>
      <internalNodes>
        0 -1 97316 -2.1008048206567764e-03</internalNodes>
      <leafValues>
        -3.3032038807868958e-01 1.0151544213294983e-01</leafValues></_>
    <_>
      <internalNodes>
        0 -1 237124 -1.8488776404410601e-03</internalNodes>
      <leafValues>
        4.6798497438430786e-01 -8.4530130028724670e-02</leafValues></_>
    <_>
      <internalNodes>
        0 -1 96142 -1.0457672178745270e-03</internalNodes>
      <leafValues>
        2.8252115845680237e-01 -1.0705096274614334e-01</leafValues></_>
    <_>
      <internalNodes>
        0 -1 61314 1.6345359385013580e-02</internalNodes>
      <leafValues>
        4.6430971473455429e-02 -6.6269016265869141e-01</leafValues></_>
    <_>
      <internalNodes>
        0 -1 80955 -1.0978679172694683e-02</internalNodes>
      <leafValues>
        4.7683137655258179e-01 -7.4018850922584534e-02</leafValues></_>
    <_>
      <internalNodes>
        0 -1 93050 -1.2548065185546875e-01</internalNodes>
      <leafValues>
        2.6768931746482849e-01 -1.0930610448122025e-01</leafValues></_>
    <_>
      <internalNodes>
        0 -1 64981 6.5677770180627704e-04</internalNodes>
      <leafValues>
        -1.6153256595134735e-01 2.2781449556350708e-01</leafValues></_>
    <_>
      <internalNodes>
        0 -1 63912 -1.1545955203473568e-03</internalNodes>
      <leafValues>
        2.9824158549308777e-01 -1.1748308688402176e-01</leafValues></_>
    <_>
      <internalNodes>
        0 -1 154268 6.0799950733780861e-04</internalNodes>
      <leafValues>
        1.5499781072139740e-01 -2.0484967529773712e-01</leafValues></_>
    <_>
      <internalNodes>
        0 -1 48615 3.7830462679266930e-03</internalNodes>
      <leafValues>
        -8.8242158293724060e-02 3.7934878468513489e-01</leafValues></_>
    <_>
      <internalNodes>
        0 -1 156266 -1.1160231661051512e-03</internalNodes>
      <leafValues>
        -4.0352320671081543e-01 8.6582891643047333e-02</leafValues></_>
    <_>
      <internalNodes>
        0 -1 121811 3.4395419061183929e-02</internalNodes>
      <leafValues>
        1.1654509603977203e-01 -2.8453966975212097e-01</leafValues></_>
    <_>
      <internalNodes>
        0 -1 258391 -2.5016048457473516e-03</internalNodes>
      <leafValues>
        3.2532501220703125e-01 -1.0173938423395157e-01</leafValues></_>
    <_>
      <internalNodes>
        0 -1 190046 1.7557039391249418e-03</internalNodes>
      <leafValues>
        -9.7945496439933777e-02 3.4825488924980164e-01</leafValues></_>
    <_>
      <internalNodes>
        0 -1 166693 5.4521143436431885e-02</internalNodes>
      <leafValues>
        5.1865834742784500e-02 -6.7745387554168701e-01</leafValues></_>
    <_>
      <internalNodes>
        0 -1 178323 9.9770929664373398e-03</internalNodes>
      <leafValues>
        -1.1053866147994995e-01 3.3344674110412598e-01</leafValues></_>
    <_>
      <internalNodes>
        0 -1 50804 -9.6733262762427330e-04</internalNodes>
      <leafValues>
        -2.2491365671157837e-01 1.4292325079441071e-01</leafValues></_>
    <_>
      <internalNodes>
        0 -1 197907 -1.1387628037482500e-03</internalNodes>
      <leafValues>
        3.5322630405426025e-01 -1.0591960698366165e-01</leafValues></_>
    <_>
      <internalNodes>
        0 -1 223259 -1.6727916896343231e-02</internalNodes>
      <leafValues>
        3.3990427851676941e-01 -9.4929188489913940e-02</leafValues></_>
    <_>
      <internalNodes>
        0 -1 1301 -5.9345038607716560e-03</internalNodes>
      <leafValues>
        2.8534451127052307e-01 -1.0788980126380920e-01</leafValues></_>
    <_>
      <internalNodes>
        0 -1 180992 -1.4000743394717574e-03</internalNodes>
      <leafValues>
        2.9094722867012024e-01 -1.1029388010501862e-01</leafValues></_>
    <_>
      <internalNodes>
        0 -1 82651 4.5045897364616394e-02</internalNodes>
      <leafValues>
        5.2437733858823776e-02 -6.4336878061294556e-01</leafValues></_>
    <_>
      <internalNodes>
        0 -1 260159 -8.5464334115386009e-03</internalNodes>
      <leafValues>
        8.1017577648162842e-01 -4.5906182378530502e-02</leafValues></_>
    <_>
      <internalNodes>
        0 -1 186192 -2.1324407309293747e-02</internalNodes>
      <leafValues>
        3.4395575523376465e-01 -9.7773633897304535e-02</leafValues></_>
    <_>
      <internalNodes>
        0 -1 188749 -1.2775506824254990e-02</internalNodes>
      <leafValues>
        -6.8998241424560547e-01 4.9535118043422699e-02</leafValues></_>
    <_>
      <internalNodes>
        0 -1 162636 -5.4995663464069366e-02</internalNodes>
      <leafValues>
        -7.4799448251724243e-01 3.8687165826559067e-02</leafValues></_>
    <_>
      <internalNodes>
        0 -1 62671 -2.4567311629652977e-03</internalNodes>
      <leafValues>
        3.5545587539672852e-01 -9.5008321106433868e-02</leafValues></_>
    <_>
      <internalNodes>
        0 -1 231424 -2.8680083341896534e-03</internalNodes>
      <leafValues>
        3.3931946754455566e-01 -1.0076697170734406e-01</leafValues></_>
    <_>
      <internalNodes>
        0 -1 171547 -3.3885583281517029e-02</internalNodes>
      <leafValues>
        4.3891113996505737e-01 -7.9222209751605988e-02</leafValues></_>
    <_>
      <internalNodes>
        0 -1 238900 -8.6062238551676273e-04</internalNodes>
      <leafValues>
        3.2859715819358826e-01 -1.0807310044765472e-01</leafValues></_>
    <_>
      <internalNodes>
        0 -1 48174 -4.2362567037343979e-03</internalNodes>
      <leafValues>
        -4.8649287223815918e-01 7.6166510581970215e-02</leafValues></_>
    <_>
      <internalNodes>
        0 -1 192795 7.9386960715055466e-04</internalNodes>
      <leafValues>
        -1.1504139751195908e-01 3.0893653631210327e-01</leafValues></_>
    <_>
      <internalNodes>
        0 -1 2804 6.9147450849413872e-03</internalNodes>
      <leafValues>
        4.9395225942134857e-02 -7.4218773841857910e-01</leafValues></_>
    <_>
      <internalNodes>
        0 -1 167561 -4.3649766594171524e-03</internalNodes>
      <leafValues>
        1.8803237378597260e-01 -2.0166827738285065e-01</leafValues></_>
    <_>
      <internalNodes>
        0 -1 72418 2.4851318448781967e-02</internalNodes>
      <leafValues>
        -1.1133561283349991e-01 3.3190956711769104e-01</leafValues></_>
    <_>
      <internalNodes>
        0 -1 11591 -8.3959931507706642e-03</internalNodes>
      <leafValues>
        3.1838944554328918e-01 -1.0759913176298141e-01</leafValues></_>
    <_>
      <internalNodes>
        0 -1 205174 1.6892486810684204e-01</internalNodes>
      <leafValues>
        4.4891230762004852e-02 -6.5207618474960327e-01</leafValues></_>
    <_>
      <internalNodes>
        0 -1 193602 -4.5714657753705978e-03</internalNodes>
      <leafValues>
        -7.2753238677978516e-01 4.3783564120531082e-02</leafValues></_>
    <_>
      <internalNodes>
        0 -1 232427 1.5440379502251744e-03</internalNodes>
      <leafValues>
        7.4003152549266815e-02 -3.9763981103897095e-01</leafValues></_>
    <_>
      <internalNodes>
        0 -1 200541 2.0645919721573591e-03</internalNodes>
      <leafValues>
        -8.0224603414535522e-02 4.5022287964820862e-01</leafValues></_>
    <_>
      <internalNodes>
        0 -1 64507 -2.7015968225896358e-03</internalNodes>
      <leafValues>
        3.4681877493858337e-01 -9.5707520842552185e-02</leafValues></_>
    <_>
      <internalNodes>
        0 -1 57746 -1.6474355012178421e-02</internalNodes>
      <leafValues>
        -5.1859450340270996e-01 6.4164176583290100e-02</leafValues></_>
    <_>
      <internalNodes>
        0 -1 98043 -6.2591610476374626e-03</internalNodes>
      <leafValues>
        4.7852647304534912e-01 -7.7195405960083008e-02</leafValues></_></weakClassifiers></stage14>
</opencv_storage>
