<?xml version="1.0"?>
<opencv_storage>
<stage12>
  <maxWeakCount>7</maxWeakCount>
  <stageThreshold>-1.3239133358001709e+00</stageThreshold>
  <weakClassifiers>
    <_>
      <internalNodes>
        0 -1 1655 1351213279 -14839593 -2129599265 -15514159 1217036479
        -610615007 -721118545 -286553974</internalNodes>
      <leafValues>
        -7.2590625286102295e-01 5.9663867950439453e-01</leafValues></_>
    <_>
      <internalNodes>
        0 -1 6418 85153199 1603749169 1074868533 -104775357 185245863
        -1880620904 240320859 708772354</internalNodes>
      <leafValues>
        -7.0644158124923706e-01 3.5688024759292603e-01</leafValues></_>
    <_>
      <internalNodes>
        0 -1 1175 -803019278 -511115200 1074023702 -1768488504 415942795
        -2104786739 -1610497379 1416044775</internalNodes>
      <leafValues>
        -6.4975869655609131e-01 3.9463168382644653e-01</leafValues></_>
    <_>
      <internalNodes>
        0 -1 8355 -1567452673 639901954 -1602125818 311697931 -930959222
        17154050 -2008924128 -1364411666</internalNodes>
      <leafValues>
        -6.8342787027359009e-01 4.2160207033157349e-01</leafValues></_>
    <_>
      <internalNodes>
        0 -1 275 1103749768 -754450425 1078023239 860045509 -2138406693
        -1845458943 1376989423 -1366580981</internalNodes>
      <leafValues>
        -5.4314011335372925e-01 5.8441603183746338e-01</leafValues></_>
    <_>
      <internalNodes>
        0 -1 608 -448732181 1344521747 1090535563 -794226295 34342395
        -794647411 -2146794868 2055995517</internalNodes>
      <leafValues>
        -6.6597986221313477e-01 4.4311341643333435e-01</leafValues></_>
    <_>
      <internalNodes>
        0 -1 640 -783547438 -536805375 22052883 1393758351 -1977483056
        -264208382 42471950 -169932661</internalNodes>
      <leafValues>
        -5.6200110912322998e-01 5.5451303720474243e-01</leafValues></_></weakClassifiers></stage12>
</opencv_storage>
