<?xml version="1.0"?>
<opencv_storage>
<stage9>
  <maxWeakCount>7</maxWeakCount>
  <stageThreshold>-1.8973944187164307e+00</stageThreshold>
  <weakClassifiers>
    <_>
      <internalNodes>
        0 -1 8148 -2886657 -76060525 -633136659 863721183 -592192514
        -1173395301 -368379220 -83886081</internalNodes>
      <leafValues>
        -7.7303922176361084e-01 1.6739130020141602e-01</leafValues></_>
    <_>
      <internalNodes>
        0 -1 7597 -118035721 182353991 -1742491305 342223901 -621546253
        -2138511126 -41878797 -1933582177</internalNodes>
      <leafValues>
        -6.4014101028442383e-01 3.2571625709533691e-01</leafValues></_>
    <_>
      <internalNodes>
        0 -1 1983 -1487432873 -738488277 -1861160449 -338194025
        -1593054737 -1155049269 -82059537 183443970</internalNodes>
      <leafValues>
        -6.2164491415023804e-01 4.1491934657096863e-01</leafValues></_>
    <_>
      <internalNodes>
        0 -1 8133 -656147364 -146611309 -1744338853 -37423742
        -1998601512 -108326246 -1730680594 821296807</internalNodes>
      <leafValues>
        -6.5940874814987183e-01 3.6897790431976318e-01</leafValues></_>
    <_>
      <internalNodes>
        0 -1 301 -1061121072 -1211561904 -1841102507 -820410140
        1757135753 -142245846 -920194886 -435029689</internalNodes>
      <leafValues>
        -7.6222282648086548e-01 3.6102896928787231e-01</leafValues></_>
    <_>
      <internalNodes>
        0 -1 493 -799418960 -602401726 -1056358309 1361252494 -329273161
        -762787818 1134494602 1945825496</internalNodes>
      <leafValues>
        -8.0599868297576904e-01 3.0714350938796997e-01</leafValues></_>
    <_>
      <internalNodes>
        0 -1 678 -1156567688 -13627223 -2130177831 932806681 -1433914664
        -71759445 -1962300757 1831725227</internalNodes>
      <leafValues>
        -7.5050270557403564e-01 3.3354651927947998e-01</leafValues></_></weakClassifiers></stage9>
</opencv_storage>
