<?xml version="1.0"?>
<opencv_storage>
<stage5>
  <maxWeakCount>6</maxWeakCount>
  <stageThreshold>-2.1711168289184570e+00</stageThreshold>
  <weakClassifiers>
    <_>
      <internalNodes>
        0 -1 8148 -18874369 -1143491233 1201041663 865860439 -20185122
        -1162106709 -389485874 -1694760961</internalNodes>
      <leafValues>
        -8.1202811002731323e-01 1.0267472267150879e-01</leafValues></_>
    <_>
      <internalNodes>
        0 -1 674 -581116716 2075927487 -1290249217 -139542071 -7542275
        -6340359 1603070975 -180225</internalNodes>
      <leafValues>
        -7.5928986072540283e-01 2.9396146535873413e-01</leafValues></_>
    <_>
      <internalNodes>
        0 -1 473 -204407873 1472270965 117495061 1998603615 -742340130
        -3323765 -1203634193 2139586359</internalNodes>
      <leafValues>
        -7.1295738220214844e-01 3.7572184205055237e-01</leafValues></_>
    <_>
      <internalNodes>
        0 -1 3664 -807473376 -2130398 -246423158 1718667131 -2134725904
        -235453177 -840963585 1379131787</internalNodes>
      <leafValues>
        -7.6157724857330322e-01 3.4013018012046814e-01</leafValues></_>
    <_>
      <internalNodes>
        0 -1 7606 488502233 303722968 9441302 1037827014 -1174410757
        989580235 -17831811 989854719</internalNodes>
      <leafValues>
        -7.2823399305343628e-01 3.8851234316825867e-01</leafValues></_>
    <_>
      <internalNodes>
        0 -1 1613 -1189505357 1065354129 1367872953 -1090379848
        -1710548739 -1182787432 634585560 530386335</internalNodes>
      <leafValues>
        -5.8288592100143433e-01 5.1429069042205811e-01</leafValues></_></weakClassifiers></stage5>
</opencv_storage>
