<?xml version="1.0"?>
<opencv_storage>
<stage0>
  <maxWeakCount>5</maxWeakCount>
  <stageThreshold>-1.6131778955459595e+00</stageThreshold>
  <weakClassifiers>
    <_>
      <internalNodes>
        0 -1 3728 -784270852 -8562275 889281021 -15077411 -70386689
        -4675077 -376455685 -4202501</internalNodes>
      <leafValues>
        -8.7559807300567627e-01 4.6355685591697693e-01</leafValues></_>
    <_>
      <internalNodes>
        0 -1 3109 -2228225 -853577 -1785212417 1608455199 -593761281
        -73421144 998882303 1059005098</internalNodes>
      <leafValues>
        -8.3818131685256958e-01 5.4433447122573853e-01</leafValues></_>
    <_>
      <internalNodes>
        0 -1 545 -50528257 -67907235 -977215489 924075807 -842237697
        -148936398 -923768001 2063628055</internalNodes>
      <leafValues>
        -8.7683892250061035e-01 4.4574123620986938e-01</leafValues></_>
    <_>
      <internalNodes>
        0 -1 6685 -167904771 -786574891 -1072377379 -48375969
        -1601647619 -1095008098 144305117 218094303</internalNodes>
      <leafValues>
        -7.6684391498565674e-01 4.7552207112312317e-01</leafValues></_>
    <_>
      <internalNodes>
        0 -1 2578 -52978221 -9088675 294510030 -1109946152 -318112005
        1966448779 1890312190 1462717371</internalNodes>
      <leafValues>
        -7.7261137962341309e-01 5.0191831588745117e-01</leafValues></_></weakClassifiers></stage0>
</opencv_storage>
