<?xml version="1.0"?>
<opencv_storage>
<stage8>
  <maxWeakCount>6</maxWeakCount>
  <stageThreshold>-1.5278885364532471e+00</stageThreshold>
  <weakClassifiers>
    <_>
      <internalNodes>
        0 -1 8157 -134217737 -1162306950 -166267429 -1613432481
        -718351361 -97983605 -213779553 -67112017</internalNodes>
      <leafValues>
        -7.6388555765151978e-01 2.1046373248100281e-01</leafValues></_>
    <_>
      <internalNodes>
        0 -1 643 -555787811 -19260337 -1794286242 -81308177 -909173835
        -109434609 -1424355361 -299025</internalNodes>
      <leafValues>
        -6.0762083530426025e-01 4.0538582205772400e-01</leafValues></_>
    <_>
      <internalNodes>
        0 -1 7974 -2750 -25166617 -542200912 1069202427 1960134133
        -1510516809 1610594303 -83886609</internalNodes>
      <leafValues>
        -4.8136919736862183e-01 5.5369520187377930e-01</leafValues></_>
    <_>
      <internalNodes>
        0 -1 7804 -659770664 -355687 172052989 -68127861 958444541
        -1098022231 -606660386 -1073955088</internalNodes>
      <leafValues>
        -6.4413887262344360e-01 4.1643834114074707e-01</leafValues></_>
    <_>
      <internalNodes>
        0 -1 6673 1944038142 -1248811979 36951 1032618931 -1475860262
        993040536 105019807 -1346011697</internalNodes>
      <leafValues>
        -5.3102970123291016e-01 5.3088462352752686e-01</leafValues></_>
    <_>
      <internalNodes>
        0 -1 4559 -581252992 1499019777 1360265755 1304660099
        -1769981961 1099747887 -8169334 -884999961</internalNodes>
      <leafValues>
        -5.0925803184509277e-01 5.4426962137222290e-01</leafValues></_></weakClassifiers></stage8>
</opencv_storage>
